<?xml version="1.0"?>
<opencv_storage>
<stage7>
  <maxWeakCount>85</maxWeakCount>
  <stageThreshold>-6.6068136692047119e-01</stageThreshold>
  <weakClassifiers>
    <_>
      <internalNodes>
        0 -1 77297 6.5518957562744617e-03</internalNodes>
      <leafValues>
        2.4476189911365509e-01 6.4333331584930420e-01</leafValues></_>
    <_>
      <internalNodes>
        0 -1 38727 1.0847864672541618e-02</internalNodes>
      <leafValues>
        -3.4107912331819534e-02 5.6495308876037598e-01</leafValues></_>
    <_>
      <internalNodes>
        0 -1 38727 1.0716812685132027e-02</internalNodes>
      <leafValues>
        1.2779247481375933e-03 -9.8396044969558716e-01</leafValues></_>
    <_>
      <internalNodes>
        0 -1 38727 1.0471208021044731e-02</internalNodes>
      <leafValues>
        -2.3446860723197460e-03 7.8429597616195679e-01</leafValues></_>
    <_>
      <internalNodes>
        0 -1 32704 1.9327104091644287e-02</internalNodes>
      <leafValues>
        -3.0993161723017693e-02 7.9927027225494385e-01</leafValues></_>
    <_>
      <internalNodes>
        0 -1 31633 7.6636690646409988e-03</internalNodes>
      <leafValues>
        -1.3430161774158478e-01 2.1630591154098511e-01</leafValues></_>
    <_>
      <internalNodes>
        0 -1 57783 2.8105829842388630e-03</internalNodes>
      <leafValues>
        -9.0374551713466644e-02 3.0363535881042480e-01</leafValues></_>
    <_>
      <internalNodes>
        0 -1 33331 1.1964439181610942e-04</internalNodes>
      <leafValues>
        -1.6724304854869843e-01 1.2914280593395233e-01</leafValues></_>
    <_>
      <internalNodes>
        0 -1 61443 -1.5230462886393070e-03</internalNodes>
      <leafValues>
        2.6281237602233887e-01 -7.7696532011032104e-02</leafValues></_>
    <_>
      <internalNodes>
        0 -1 57659 2.7206966187804937e-03</internalNodes>
      <leafValues>
        -1.4367878437042236e-01 1.6890414059162140e-01</leafValues></_>
    <_>
      <internalNodes>
        0 -1 78105 1.6038799658417702e-03</internalNodes>
      <leafValues>
        -7.8058160841464996e-02 2.4573409557342529e-01</leafValues></_>
    <_>
      <internalNodes>
        0 -1 78170 3.5101128742098808e-03</internalNodes>
      <leafValues>
        4.9680422991514206e-02 -4.1567310690879822e-01</leafValues></_>
    <_>
      <internalNodes>
        0 -1 54233 1.5072932001203299e-03</internalNodes>
      <leafValues>
        -1.1660091578960419e-01 1.7451824247837067e-01</leafValues></_>
    <_>
      <internalNodes>
        0 -1 71709 2.4663558229804039e-02</internalNodes>
      <leafValues>
        -4.2858809232711792e-02 4.4823914766311646e-01</leafValues></_>
    <_>
      <internalNodes>
        0 -1 32123 -3.0829389579594135e-03</internalNodes>
      <leafValues>
        1.8805760145187378e-01 -1.1107408255338669e-01</leafValues></_>
    <_>
      <internalNodes>
        0 -1 38242 5.4376358166337013e-03</internalNodes>
      <leafValues>
        -9.2671461403369904e-02 2.3484162986278534e-01</leafValues></_>
    <_>
      <internalNodes>
        0 -1 42945 -4.1153645142912865e-03</internalNodes>
      <leafValues>
        2.6417312026023865e-01 -7.6837547123432159e-02</leafValues></_>
    <_>
      <internalNodes>
        0 -1 59961 4.3182228691875935e-03</internalNodes>
      <leafValues>
        3.7408508360385895e-02 -6.4838212728500366e-01</leafValues></_>
    <_>
      <internalNodes>
        0 -1 37132 1.8398527055978775e-02</internalNodes>
      <leafValues>
        5.0493117421865463e-02 -3.6144068837165833e-01</leafValues></_>
    <_>
      <internalNodes>
        0 -1 74170 7.5183445587754250e-03</internalNodes>
      <leafValues>
        3.2452728599309921e-02 -5.9751808643341064e-01</leafValues></_>
    <_>
      <internalNodes>
        0 -1 77040 1.0645605623722076e-02</internalNodes>
      <leafValues>
        -1.0533041507005692e-01 2.0125073194503784e-01</leafValues></_>
    <_>
      <internalNodes>
        0 -1 4 2.5815819390118122e-03</internalNodes>
      <leafValues>
        4.4457178562879562e-02 -4.2813217639923096e-01</leafValues></_>
    <_>
      <internalNodes>
        0 -1 62361 1.0985904373228550e-03</internalNodes>
      <leafValues>
        -1.2132357805967331e-01 1.5302155911922455e-01</leafValues></_>
    <_>
      <internalNodes>
        0 -1 54332 3.8448879495263100e-03</internalNodes>
      <leafValues>
        3.6766767501831055e-02 -5.6125593185424805e-01</leafValues></_>
    <_>
      <internalNodes>
        0 -1 68932 4.8977560363709927e-03</internalNodes>
      <leafValues>
        -8.5413336753845215e-02 2.2915405035018921e-01</leafValues></_>
    <_>
      <internalNodes>
        0 -1 47598 -1.8667648546397686e-03</internalNodes>
      <leafValues>
        2.0891256630420685e-01 -8.4768190979957581e-02</leafValues></_>
    <_>
      <internalNodes>
        0 -1 31222 -1.5656525269150734e-02</internalNodes>
      <leafValues>
        -4.9028721451759338e-01 3.7387929856777191e-02</leafValues></_>
    <_>
      <internalNodes>
        0 -1 77784 5.2684512920677662e-03</internalNodes>
      <leafValues>
        2.5317499414086342e-02 -6.8223679065704346e-01</leafValues></_>
    <_>
      <internalNodes>
        0 -1 32007 9.5425546169281006e-03</internalNodes>
      <leafValues>
        7.5410291552543640e-02 -2.2299569845199585e-01</leafValues></_>
    <_>
      <internalNodes>
        0 -1 36818 -3.2164543867111206e-02</internalNodes>
      <leafValues>
        -3.9340820908546448e-01 4.6927727758884430e-02</leafValues></_>
    <_>
      <internalNodes>
        0 -1 31717 -2.0988080650568008e-02</internalNodes>
      <leafValues>
        3.5683795809745789e-01 -6.9910451769828796e-02</leafValues></_>
    <_>
      <internalNodes>
        0 -1 19672 6.2583354301750660e-03</internalNodes>
      <leafValues>
        -1.3740047812461853e-01 1.4434768259525299e-01</leafValues></_>
    <_>
      <internalNodes>
        0 -1 67960 3.2944367267191410e-03</internalNodes>
      <leafValues>
        3.9659392088651657e-02 -4.2614594101905823e-01</leafValues></_>
    <_>
      <internalNodes>
        0 -1 54195 3.5442262887954712e-03</internalNodes>
      <leafValues>
        6.1296202242374420e-02 -2.7846726775169373e-01</leafValues></_>
    <_>
      <internalNodes>
        0 -1 66464 -2.1563847549259663e-03</internalNodes>
      <leafValues>
        1.8716740608215332e-01 -9.2993088066577911e-02</leafValues></_>
    <_>
      <internalNodes>
        0 -1 75650 3.9072342216968536e-02</internalNodes>
      <leafValues>
        3.8831762969493866e-02 -4.6613976359367371e-01</leafValues></_>
    <_>
      <internalNodes>
        0 -1 76946 -5.1650288514792919e-03</internalNodes>
      <leafValues>
        2.4531745910644531e-01 -7.2668045759201050e-02</leafValues></_>
    <_>
      <internalNodes>
        0 -1 60043 -3.0131123960018158e-02</internalNodes>
      <leafValues>
        2.9580238461494446e-01 -5.6655552238225937e-02</leafValues></_>
    <_>
      <internalNodes>
        0 -1 71246 2.7981957420706749e-02</internalNodes>
      <leafValues>
        4.1120678186416626e-02 -4.3287253379821777e-01</leafValues></_>
    <_>
      <internalNodes>
        0 -1 58361 -9.3645555898547173e-03</internalNodes>
      <leafValues>
        -5.0505030155181885e-01 3.3262804150581360e-02</leafValues></_>
    <_>
      <internalNodes>
        0 -1 11287 4.4162375852465630e-03</internalNodes>
      <leafValues>
        -1.0389944165945053e-01 1.6523943841457367e-01</leafValues></_>
    <_>
      <internalNodes>
        0 -1 57521 1.3508442789316177e-02</internalNodes>
      <leafValues>
        3.2974839210510254e-02 -5.0428724288940430e-01</leafValues></_>
    <_>
      <internalNodes>
        0 -1 78114 -8.1266101915389299e-04</internalNodes>
      <leafValues>
        1.0977023094892502e-01 -1.4913955330848694e-01</leafValues></_>
    <_>
      <internalNodes>
        0 -1 78095 -1.0047804098576307e-03</internalNodes>
      <leafValues>
        1.6592423617839813e-01 -1.0317698866128922e-01</leafValues></_>
    <_>
      <internalNodes>
        0 -1 77277 -1.6358774155378342e-02</internalNodes>
      <leafValues>
        -5.8548676967620850e-01 2.8803225606679916e-02</leafValues></_>
    <_>
      <internalNodes>
        0 -1 78124 1.5424419194459915e-02</internalNodes>
      <leafValues>
        -5.2709378302097321e-02 3.6462002992630005e-01</leafValues></_>
    <_>
      <internalNodes>
        0 -1 71532 -7.7766209840774536e-02</internalNodes>
      <leafValues>
        -3.6657097935676575e-01 4.8591170459985733e-02</leafValues></_>
    <_>
      <internalNodes>
        0 -1 72734 -9.3977171927690506e-03</internalNodes>
      <leafValues>
        2.3238506913185120e-01 -1.0168901830911636e-01</leafValues></_>
    <_>
      <internalNodes>
        0 -1 75172 1.0842389892786741e-03</internalNodes>
      <leafValues>
        8.5496187210083008e-02 -2.0258137583732605e-01</leafValues></_>
    <_>
      <internalNodes>
        0 -1 52648 -1.3151452876627445e-03</internalNodes>
      <leafValues>
        1.9513171911239624e-01 -8.6576685309410095e-02</leafValues></_>
    <_>
      <internalNodes>
        0 -1 52647 -6.4075971022248268e-04</internalNodes>
      <leafValues>
        1.5745896100997925e-01 -1.0771914571523666e-01</leafValues></_>
    <_>
      <internalNodes>
        0 -1 58579 7.6193772256374359e-03</internalNodes>
      <leafValues>
        5.5213142186403275e-02 -2.9982835054397583e-01</leafValues></_>
    <_>
      <internalNodes>
        0 -1 52653 1.1921798810362816e-02</internalNodes>
      <leafValues>
        -3.1863726675510406e-02 5.8190906047821045e-01</leafValues></_>
    <_>
      <internalNodes>
        0 -1 70157 1.5221668407320976e-02</internalNodes>
      <leafValues>
        3.9953354746103287e-02 -4.3270981311798096e-01</leafValues></_>
    <_>
      <internalNodes>
        0 -1 71849 3.4540519118309021e-04</internalNodes>
      <leafValues>
        -1.2190971523523331e-01 1.2900456786155701e-01</leafValues></_>
    <_>
      <internalNodes>
        0 -1 13366 -9.7466707229614258e-03</internalNodes>
      <leafValues>
        4.7043085098266602e-01 -3.0200947076082230e-02</leafValues></_>
    <_>
      <internalNodes>
        0 -1 10335 1.1042179539799690e-02</internalNodes>
      <leafValues>
        2.3196997120976448e-02 -7.3711472749710083e-01</leafValues></_>
    <_>
      <internalNodes>
        0 -1 47611 1.6320094466209412e-02</internalNodes>
      <leafValues>
        2.4121023714542389e-02 -5.7918381690979004e-01</leafValues></_>
    <_>
      <internalNodes>
        0 -1 43881 1.8581487238407135e-02</internalNodes>
      <leafValues>
        -6.2696397304534912e-02 2.7554479241371155e-01</leafValues></_>
    <_>
      <internalNodes>
        0 -1 31590 1.1737999506294727e-02</internalNodes>
      <leafValues>
        2.9052682220935822e-02 -5.5568504333496094e-01</leafValues></_>
    <_>
      <internalNodes>
        0 -1 20837 -9.2951171100139618e-02</internalNodes>
      <leafValues>
        -5.3807693719863892e-01 2.9601244255900383e-02</leafValues></_>
    <_>
      <internalNodes>
        0 -1 52690 8.5629057139158249e-03</internalNodes>
      <leafValues>
        2.4289242923259735e-02 -6.0930937528610229e-01</leafValues></_>
    <_>
      <internalNodes>
        0 -1 75994 -6.1505388468503952e-02</internalNodes>
      <leafValues>
        -7.0149749517440796e-01 2.0921150222420692e-02</leafValues></_>
    <_>
      <internalNodes>
        0 -1 36339 -2.7804998680949211e-02</internalNodes>
      <leafValues>
        -3.1973579525947571e-01 4.9056027084589005e-02</leafValues></_>
    <_>
      <internalNodes>
        0 -1 78106 -1.9223644630983472e-03</internalNodes>
      <leafValues>
        2.4654620885848999e-01 -6.4125373959541321e-02</leafValues></_>
    <_>
      <internalNodes>
        0 -1 77976 -1.2382006971165538e-03</internalNodes>
      <leafValues>
        1.5563106536865234e-01 -1.0529734194278717e-01</leafValues></_>
    <_>
      <internalNodes>
        0 -1 76032 -7.1249795146286488e-03</internalNodes>
      <leafValues>
        3.4284192323684692e-01 -4.5739464461803436e-02</leafValues></_>
    <_>
      <internalNodes>
        0 -1 42901 -6.9008639547973871e-04</internalNodes>
      <leafValues>
        1.5090027451515198e-01 -1.0120519995689392e-01</leafValues></_>
    <_>
      <internalNodes>
        0 -1 20324 -5.5262800306081772e-03</internalNodes>
      <leafValues>
        -7.0784300565719604e-01 2.3978149518370628e-02</leafValues></_>
    <_>
      <internalNodes>
        0 -1 78123 -3.5629398189485073e-03</internalNodes>
      <leafValues>
        1.6901494562625885e-01 -9.6512205898761749e-02</leafValues></_>
    <_>
      <internalNodes>
        0 -1 37453 1.0595545172691345e-03</internalNodes>
      <leafValues>
        -7.7277138829231262e-02 2.0537963509559631e-01</leafValues></_>
    <_>
      <internalNodes>
        0 -1 7622 -1.1644018813967705e-03</internalNodes>
      <leafValues>
        -2.0401667058467865e-01 7.9253904521465302e-02</leafValues></_>
    <_>
      <internalNodes>
        0 -1 31171 -1.4474515337496996e-03</internalNodes>
      <leafValues>
        1.8948160111904144e-01 -8.6044423282146454e-02</leafValues></_>
    <_>
      <internalNodes>
        0 -1 37811 -1.0856657288968563e-02</internalNodes>
      <leafValues>
        -5.3274333477020264e-01 2.9428092762827873e-02</leafValues></_>
    <_>
      <internalNodes>
        0 -1 37076 -1.0027361102402210e-02</internalNodes>
      <leafValues>
        -4.9886077642440796e-01 2.7842625975608826e-02</leafValues></_>
    <_>
      <internalNodes>
        0 -1 19666 -3.8971703033894300e-03</internalNodes>
      <leafValues>
        2.6546302437782288e-01 -5.9633839875459671e-02</leafValues></_>
    <_>
      <internalNodes>
        0 -1 32397 1.0950740426778793e-02</internalNodes>
      <leafValues>
        -5.1091123372316360e-02 3.5243871808052063e-01</leafValues></_>
    <_>
      <internalNodes>
        0 -1 76311 -6.0357763431966305e-03</internalNodes>
      <leafValues>
        -6.2651240825653076e-01 2.9771763831377029e-02</leafValues></_>
    <_>
      <internalNodes>
        0 -1 4005 1.0089688003063202e-01</internalNodes>
      <leafValues>
        -5.7562444359064102e-02 3.2569447159767151e-01</leafValues></_>
    <_>
      <internalNodes>
        0 -1 78414 -7.6766340062022209e-03</internalNodes>
      <leafValues>
        4.1449293494224548e-01 -3.5967204719781876e-02</leafValues></_>
    <_>
      <internalNodes>
        0 -1 6720 5.7424767874181271e-03</internalNodes>
      <leafValues>
        4.5981280505657196e-02 -3.7954235076904297e-01</leafValues></_>
    <_>
      <internalNodes>
        0 -1 59230 1.9021970033645630e-01</internalNodes>
      <leafValues>
        3.3026289194822311e-02 -5.3720873594284058e-01</leafValues></_>
    <_>
      <internalNodes>
        0 -1 62578 -8.6961060762405396e-02</internalNodes>
      <leafValues>
        4.1955590248107910e-01 -4.1965790092945099e-02</leafValues></_>
    <_>
      <internalNodes>
        0 -1 39728 -5.5645527318120003e-03</internalNodes>
      <leafValues>
        -7.7233791351318359e-01 2.5455368682742119e-02</leafValues></_>
    <_>
      <internalNodes>
        0 -1 54361 -1.8507516942918301e-03</internalNodes>
      <leafValues>
        1.7138735949993134e-01 -1.0620250552892685e-01</leafValues></_></weakClassifiers></stage7>
</opencv_storage>
