<?xml version="1.0"?>
<opencv_storage>
<stage9>
  <maxWeakCount>84</maxWeakCount>
  <stageThreshold>-5.9825092554092407e-01</stageThreshold>
  <weakClassifiers>
    <_>
      <internalNodes>
        0 -1 61480 -6.4695701003074646e-03</internalNodes>
      <leafValues>
        5.0999999046325684e-01 1.9200000166893005e-01</leafValues></_>
    <_>
      <internalNodes>
        0 -1 31310 1.1127550154924393e-02</internalNodes>
      <leafValues>
        -4.9967933446168900e-02 4.2762923240661621e-01</leafValues></_>
    <_>
      <internalNodes>
        0 -1 74519 3.7963613867759705e-03</internalNodes>
      <leafValues>
        -1.7600177228450775e-01 1.2688173353672028e-01</leafValues></_>
    <_>
      <internalNodes>
        0 -1 32003 1.0913239791989326e-02</internalNodes>
      <leafValues>
        -4.5667413622140884e-02 5.0108242034912109e-01</leafValues></_>
    <_>
      <internalNodes>
        0 -1 37800 -7.3977396823465824e-04</internalNodes>
      <leafValues>
        1.6153596341609955e-01 -1.4012205600738525e-01</leafValues></_>
    <_>
      <internalNodes>
        0 -1 61822 8.1526599824428558e-03</internalNodes>
      <leafValues>
        7.6307199895381927e-02 -2.8615769743919373e-01</leafValues></_>
    <_>
      <internalNodes>
        0 -1 20678 -4.1305450722575188e-03</internalNodes>
      <leafValues>
        1.6661284863948822e-01 -1.1854811012744904e-01</leafValues></_>
    <_>
      <internalNodes>
        0 -1 57594 3.5942390095442533e-03</internalNodes>
      <leafValues>
        -7.4295803904533386e-02 3.0610099434852600e-01</leafValues></_>
    <_>
      <internalNodes>
        0 -1 57594 -1.2130282120779157e-03</internalNodes>
      <leafValues>
        2.3316007852554321e-01 -8.2256130874156952e-02</leafValues></_>
    <_>
      <internalNodes>
        0 -1 32326 1.2409333139657974e-03</internalNodes>
      <leafValues>
        -1.2487678229808807e-01 1.4916118979454041e-01</leafValues></_>
    <_>
      <internalNodes>
        0 -1 44096 -2.1853095386177301e-03</internalNodes>
      <leafValues>
        2.0632341504096985e-01 -9.2722758650779724e-02</leafValues></_>
    <_>
      <internalNodes>
        0 -1 33023 8.8029839098453522e-03</internalNodes>
      <leafValues>
        -8.4612600505352020e-02 2.9834282398223877e-01</leafValues></_>
    <_>
      <internalNodes>
        0 -1 77503 -3.2343401107937098e-03</internalNodes>
      <leafValues>
        2.3293718695640564e-01 -8.2892537117004395e-02</leafValues></_>
    <_>
      <internalNodes>
        0 -1 77475 3.6211761180311441e-03</internalNodes>
      <leafValues>
        -1.1116949468851089e-01 2.0052622258663177e-01</leafValues></_>
    <_>
      <internalNodes>
        0 -1 78223 3.5066218115389347e-03</internalNodes>
      <leafValues>
        -6.5646700561046600e-02 2.5635585188865662e-01</leafValues></_>
    <_>
      <internalNodes>
        0 -1 49068 -1.4841690659523010e-02</internalNodes>
      <leafValues>
        -7.6227003335952759e-01 2.5793680921196938e-02</leafValues></_>
    <_>
      <internalNodes>
        0 -1 56700 2.0163706503808498e-03</internalNodes>
      <leafValues>
        -1.8672838807106018e-01 8.6140431463718414e-02</leafValues></_>
    <_>
      <internalNodes>
        0 -1 41493 1.8964443355798721e-02</internalNodes>
      <leafValues>
        -5.4722629487514496e-02 2.8821021318435669e-01</leafValues></_>
    <_>
      <internalNodes>
        0 -1 77942 5.2024340257048607e-03</internalNodes>
      <leafValues>
        2.3594241589307785e-02 -7.0235234498977661e-01</leafValues></_>
    <_>
      <internalNodes>
        0 -1 59779 -6.6759310662746429e-02</internalNodes>
      <leafValues>
        6.9602376222610474e-01 -2.6582203805446625e-02</leafValues></_>
    <_>
      <internalNodes>
        0 -1 51696 -1.7486430704593658e-02</internalNodes>
      <leafValues>
        -3.6704412102699280e-01 4.9529567360877991e-02</leafValues></_>
    <_>
      <internalNodes>
        0 -1 56046 -7.2268182411789894e-03</internalNodes>
      <leafValues>
        -6.9626963138580322e-01 2.1399997174739838e-02</leafValues></_>
    <_>
      <internalNodes>
        0 -1 44318 1.1713057756423950e-02</internalNodes>
      <leafValues>
        -3.4594856202602386e-02 5.4557472467422485e-01</leafValues></_>
    <_>
      <internalNodes>
        0 -1 72821 5.7725040242075920e-03</internalNodes>
      <leafValues>
        2.5764187797904015e-02 -7.0255041122436523e-01</leafValues></_>
    <_>
      <internalNodes>
        0 -1 47922 -2.0013467874377966e-03</internalNodes>
      <leafValues>
        2.1591538190841675e-01 -8.1378675997257233e-02</leafValues></_>
    <_>
      <internalNodes>
        0 -1 42902 -1.4797394396737218e-03</internalNodes>
      <leafValues>
        1.8834614753723145e-01 -1.0282298177480698e-01</leafValues></_>
    <_>
      <internalNodes>
        0 -1 47267 1.1516967788338661e-02</internalNodes>
      <leafValues>
        4.5391790568828583e-02 -4.4185110926628113e-01</leafValues></_>
    <_>
      <internalNodes>
        0 -1 49667 -4.8923171125352383e-03</internalNodes>
      <leafValues>
        -6.8475961685180664e-01 1.8964575603604317e-02</leafValues></_>
    <_>
      <internalNodes>
        0 -1 76105 -1.9811373203992844e-03</internalNodes>
      <leafValues>
        1.7177852988243103e-01 -9.9695272743701935e-02</leafValues></_>
    <_>
      <internalNodes>
        0 -1 54211 3.3209845423698425e-04</internalNodes>
      <leafValues>
        -1.0337820649147034e-01 1.6128665208816528e-01</leafValues></_>
    <_>
      <internalNodes>
        0 -1 2131 -1.1559971608221531e-02</internalNodes>
      <leafValues>
        4.1710084676742554e-01 -3.8469959050416946e-02</leafValues></_>
    <_>
      <internalNodes>
        0 -1 75172 -8.2451966591179371e-04</internalNodes>
      <leafValues>
        -1.8463207781314850e-01 8.9076057076454163e-02</leafValues></_>
    <_>
      <internalNodes>
        0 -1 74968 4.3636029586195946e-03</internalNodes>
      <leafValues>
        2.5213576853275299e-02 -6.1907219886779785e-01</leafValues></_>
    <_>
      <internalNodes>
        0 -1 9831 4.7805443406105042e-02</internalNodes>
      <leafValues>
        -4.5860406011343002e-02 3.4155157208442688e-01</leafValues></_>
    <_>
      <internalNodes>
        0 -1 60796 -1.9279069965705276e-04</internalNodes>
      <leafValues>
        1.1232425272464752e-01 -1.3187004625797272e-01</leafValues></_>
    <_>
      <internalNodes>
        0 -1 57636 -2.8101796284317970e-02</internalNodes>
      <leafValues>
        -3.6256417632102966e-01 4.1131030768156052e-02</leafValues></_>
    <_>
      <internalNodes>
        0 -1 73386 1.7090190667659044e-03</internalNodes>
      <leafValues>
        -8.0675125122070312e-02 1.8066059052944183e-01</leafValues></_>
    <_>
      <internalNodes>
        0 -1 77168 6.0116825625300407e-03</internalNodes>
      <leafValues>
        -2.8449712321162224e-02 4.8767796158790588e-01</leafValues></_>
    <_>
      <internalNodes>
        0 -1 71642 -4.0512960404157639e-03</internalNodes>
      <leafValues>
        2.3881588876247406e-01 -6.3570477068424225e-02</leafValues></_>
    <_>
      <internalNodes>
        0 -1 65812 -7.0875691017135978e-04</internalNodes>
      <leafValues>
        -1.6986632347106934e-01 1.0089892894029617e-01</leafValues></_>
    <_>
      <internalNodes>
        0 -1 4 -2.4776498321443796e-03</internalNodes>
      <leafValues>
        -3.8316452503204346e-01 3.9732284843921661e-02</leafValues></_>
    <_>
      <internalNodes>
        0 -1 76959 2.2037204355001450e-02</internalNodes>
      <leafValues>
        -5.3610008209943771e-02 3.0444696545600891e-01</leafValues></_>
    <_>
      <internalNodes>
        0 -1 62076 -8.6978252511471510e-04</internalNodes>
      <leafValues>
        1.6649149358272552e-01 -9.8077714443206787e-02</leafValues></_>
    <_>
      <internalNodes>
        0 -1 75907 -6.9675065577030182e-02</internalNodes>
      <leafValues>
        -6.8553799390792847e-01 2.1522177383303642e-02</leafValues></_>
    <_>
      <internalNodes>
        0 -1 56908 -1.9658963382244110e-01</internalNodes>
      <leafValues>
        2.7335703372955322e-01 -5.5586937814950943e-02</leafValues></_>
    <_>
      <internalNodes>
        0 -1 24599 3.3953177626244724e-04</internalNodes>
      <leafValues>
        -1.4571137726306915e-01 1.1322613060474396e-01</leafValues></_>
    <_>
      <internalNodes>
        0 -1 45096 4.5754918828606606e-03</internalNodes>
      <leafValues>
        2.6182284578680992e-02 -5.8658260107040405e-01</leafValues></_>
    <_>
      <internalNodes>
        0 -1 43810 -2.8723722789436579e-04</internalNodes>
      <leafValues>
        1.2613785266876221e-01 -1.2472900003194809e-01</leafValues></_>
    <_>
      <internalNodes>
        0 -1 13027 7.6386574655771255e-03</internalNodes>
      <leafValues>
        -5.0487026572227478e-02 3.3876025676727295e-01</leafValues></_>
    <_>
      <internalNodes>
        0 -1 20324 4.0302658453583717e-03</internalNodes>
      <leafValues>
        3.1039578840136528e-02 -5.2520233392715454e-01</leafValues></_>
    <_>
      <internalNodes>
        0 -1 54343 -1.0459810495376587e-02</internalNodes>
      <leafValues>
        -6.9101166725158691e-01 1.8617529422044754e-02</leafValues></_>
    <_>
      <internalNodes>
        0 -1 38987 1.2812132015824318e-02</internalNodes>
      <leafValues>
        -9.2313580214977264e-02 1.7783077061176300e-01</leafValues></_>
    <_>
      <internalNodes>
        0 -1 58533 -3.3793778857216239e-04</internalNodes>
      <leafValues>
        -1.2503102421760559e-01 1.2418555468320847e-01</leafValues></_>
    <_>
      <internalNodes>
        0 -1 48506 -1.2657380430027843e-03</internalNodes>
      <leafValues>
        1.9031640887260437e-01 -8.6418665945529938e-02</leafValues></_>
    <_>
      <internalNodes>
        0 -1 6945 1.6976170241832733e-02</internalNodes>
      <leafValues>
        -3.6221813410520554e-02 4.0379139780998230e-01</leafValues></_>
    <_>
      <internalNodes>
        0 -1 6470 1.9057076424360275e-02</internalNodes>
      <leafValues>
        -4.5079044997692108e-02 3.2723608613014221e-01</leafValues></_>
    <_>
      <internalNodes>
        0 -1 25853 -2.9244713485240936e-02</internalNodes>
      <leafValues>
        -6.1126190423965454e-01 2.6676636189222336e-02</leafValues></_>
    <_>
      <internalNodes>
        0 -1 77114 -7.6292762532830238e-03</internalNodes>
      <leafValues>
        2.3837059736251831e-01 -6.2759332358837128e-02</leafValues></_>
    <_>
      <internalNodes>
        0 -1 78041 -3.3265792299062014e-03</internalNodes>
      <leafValues>
        1.2277985364198685e-01 -1.5351541340351105e-01</leafValues></_>
    <_>
      <internalNodes>
        0 -1 70576 5.7909972965717316e-03</internalNodes>
      <leafValues>
        4.1592348366975784e-02 -3.5838130116462708e-01</leafValues></_>
    <_>
      <internalNodes>
        0 -1 76283 5.3586368449032307e-04</internalNodes>
      <leafValues>
        -1.0845100134611130e-01 1.4923347532749176e-01</leafValues></_>
    <_>
      <internalNodes>
        0 -1 77457 2.9743420891463757e-03</internalNodes>
      <leafValues>
        -6.7610561847686768e-02 2.2374163568019867e-01</leafValues></_>
    <_>
      <internalNodes>
        0 -1 77338 1.6524462029337883e-02</internalNodes>
      <leafValues>
        3.3730488270521164e-02 -5.2088099718093872e-01</leafValues></_>
    <_>
      <internalNodes>
        0 -1 14477 -1.4707914553582668e-02</internalNodes>
      <leafValues>
        -5.6285840272903442e-01 2.7372490614652634e-02</leafValues></_>
    <_>
      <internalNodes>
        0 -1 805 9.7651444375514984e-03</internalNodes>
      <leafValues>
        2.2272523492574692e-02 -6.5736955404281616e-01</leafValues></_>
    <_>
      <internalNodes>
        0 -1 23061 -2.6280265301465988e-03</internalNodes>
      <leafValues>
        -2.0008565485477448e-01 7.2088822722434998e-02</leafValues></_>
    <_>
      <internalNodes>
        0 -1 59764 1.2359619140625000e-02</internalNodes>
      <leafValues>
        2.4796199053525925e-02 -5.5536854267120361e-01</leafValues></_>
    <_>
      <internalNodes>
        0 -1 12183 2.3205140605568886e-03</internalNodes>
      <leafValues>
        -9.2138096690177917e-02 1.6235695779323578e-01</leafValues></_>
    <_>
      <internalNodes>
        0 -1 19630 3.1784959137439728e-03</internalNodes>
      <leafValues>
        4.9896333366632462e-02 -3.4447902441024780e-01</leafValues></_>
    <_>
      <internalNodes>
        0 -1 19628 -6.2374500557780266e-03</internalNodes>
      <leafValues>
        -8.8657754659652710e-01 1.4649122953414917e-02</leafValues></_>
    <_>
      <internalNodes>
        0 -1 16755 7.3813181370496750e-03</internalNodes>
      <leafValues>
        -9.5862492918968201e-02 1.6319029033184052e-01</leafValues></_>
    <_>
      <internalNodes>
        0 -1 71854 4.3500028550624847e-03</internalNodes>
      <leafValues>
        -7.2798937559127808e-02 1.9419924914836884e-01</leafValues></_>
    <_>
      <internalNodes>
        0 -1 72071 2.4543909355998039e-02</internalNodes>
      <leafValues>
        3.8205564022064209e-02 -4.1256126761436462e-01</leafValues></_>
    <_>
      <internalNodes>
        0 -1 74123 -1.6709445044398308e-03</internalNodes>
      <leafValues>
        1.8490964174270630e-01 -8.3417668938636780e-02</leafValues></_>
    <_>
      <internalNodes>
        0 -1 75868 -1.9939700141549110e-03</internalNodes>
      <leafValues>
        1.9615389406681061e-01 -8.8166169822216034e-02</leafValues></_>
    <_>
      <internalNodes>
        0 -1 74244 -2.6122049894183874e-04</internalNodes>
      <leafValues>
        1.3248498737812042e-01 -1.1127745360136032e-01</leafValues></_>
    <_>
      <internalNodes>
        0 -1 26209 2.7739638462662697e-03</internalNodes>
      <leafValues>
        -8.1390380859375000e-02 1.8077433109283447e-01</leafValues></_>
    <_>
      <internalNodes>
        0 -1 31361 2.7867473661899567e-02</internalNodes>
      <leafValues>
        -5.3551781922578812e-02 3.0894476175308228e-01</leafValues></_>
    <_>
      <internalNodes>
        0 -1 42549 7.1049104444682598e-03</internalNodes>
      <leafValues>
        3.6886990070343018e-02 -4.1619810461997986e-01</leafValues></_>
    <_>
      <internalNodes>
        0 -1 62321 2.6807351969182491e-03</internalNodes>
      <leafValues>
        3.7618491798639297e-02 -3.8239273428916931e-01</leafValues></_>
    <_>
      <internalNodes>
        0 -1 58595 -1.2374704238027334e-03</internalNodes>
      <leafValues>
        -2.2035777568817139e-01 6.4176306128501892e-02</leafValues></_>
    <_>
      <internalNodes>
        0 -1 53461 2.2084746509790421e-02</internalNodes>
      <leafValues>
        1.7360446974635124e-02 -8.1791150569915771e-01</leafValues></_>
    <_>
      <internalNodes>
        0 -1 48220 -2.2801563609391451e-03</internalNodes>
      <leafValues>
        2.3781582713127136e-01 -6.6941425204277039e-02</leafValues></_>
    <_>
      <internalNodes>
        0 -1 48219 -4.9769785255193710e-04</internalNodes>
      <leafValues>
        1.5083785355091095e-01 -1.3442739844322205e-01</leafValues></_></weakClassifiers></stage9>
</opencv_storage>
